digraph Tree {
node [shape=box] ;
0 [label="petal_width <= 0.8\ngini = 0.667\nsamples = 100\nvalue = [34, 33, 33]\nclass = setosa"] ;
1 [label="gini = 0.0\nsamples = 34\nvalue = [34, 0, 0]\nclass = setosa"] ;
0 -> 1 [labeldistance=2.5, labelangle=45, headlabel="True"] ;
2 [label="petal_length <= 4.85\ngini = 0.5\nsamples = 66\nvalue = [0, 33, 33]\nclass = versicolor"] ;
0 -> 2 [labeldistance=2.5, labelangle=-45, headlabel="False"] ;
3 [label="petal_width <= 1.65\ngini = 0.114\nsamples = 33\nvalue = [0, 31, 2]\nclass = versicolor"] ;
2 -> 3 ;
4 [label="gini = 0.0\nsamples = 30\nvalue = [0, 30, 0]\nclass = versicolor"] ;
3 -> 4 ;
5 [label="gini = 0.444\nsamples = 3\nvalue = [0, 1, 2]\nclass = virginica"] ;
3 -> 5 ;
6 [label="petal_width <= 1.75\ngini = 0.114\nsamples = 33\nvalue = [0, 2, 31]\nclass = virginica"] ;
2 -> 6 ;
7 [label="petal_length <= 5.05\ngini = 0.444\nsamples = 6\nvalue = [0, 2, 4]\nclass = virginica"] ;
6 -> 7 ;
8 [label="gini = 0.444\nsamples = 3\nvalue = [0, 2, 1]\nclass = versicolor"] ;
7 -> 8 ;
9 [label="gini = 0.0\nsamples = 3\nvalue = [0, 0, 3]\nclass = virginica"] ;
7 -> 9 ;
10 [label="gini = 0.0\nsamples = 27\nvalue = [0, 0, 27]\nclass = virginica"] ;
6 -> 10 ;
}